14 100
__label__10 2.2099 -1.9561 -2.3513 -5.6423 -0.13693 -0.98449 2.7026 -6.3158 2.2904 0.88696 -6.1178 3.648 -2.76 -2.0553 -4.9631 -2.0114 -4.995 -2.4005 -2.7219 -2.0077 1.402 -2.9285 -0.12511 -6.7587 4.5227 -4.3723 -1.0964 -3.391 -0.6029 9.2104 -3.2404 4.5992 -4.9051 -0.78742 -5.723 -2.1457 -7.486 1.6425 5.728 4.4111 -1.9308 -0.56593 -0.55446 9.5087 2.7362 0.43446 2.3723 -4.9721 -4.2668 7.6015 -3.3152 5.7548 -0.43224 -0.75865 2.2437 3.7346 2.7139 0.97399 -5.6809 -3.7874 2.7128 6.7013 6.043 -5.7583 -2.3557 1.4785 -7.9303 -3.6109 -3.3957 0.44727 -1.4826 -4.1308 0.11743 0.72187 -3.1074 -0.29149 1.3923 -1.1944 -0.41471 1.0001 -1.3887 0.2334 5.0377 -0.58829 5.0367 0.23119 -1.6257 1.3095 -1.4918 1.1996 1.0424 3.2495 1.0218 -0.20837 4.2972 0.04728 -0.093703 4.5833 -2.5285 -2.4786 
__label__14 3.6353 -2.1733 -2.917 3.9226 3.6149 1.7082 -2.2199 -4.6969 -0.8383 2.2607 -5.2682 -2.3798 4.4648 2.0274 -3.7487 0.78757 -4.7191 4.6351 -2.6182 1.4647 1.8207 2.1702 1.0975 -2.2883 3.0091 -6.5904 -0.2546 1.4056 3.4792 -5.8955 -3.6557 -0.26106 3.5422 -1.1084 -9.2215 5.2554 4.8335 -3.4102 0.25663 -1.5831 2.6783 3.7562 3.3436 2.3906 0.78642 -2.1693 1.633 0.21814 -5.0207 -4.9512 -0.28952 2.7097 -3.374 6.7958 -0.094417 -2.1115 -1.3638 -0.082821 -0.33732 0.73986 1.9001 -1.2109 4.5746 2.2261 1.8622 -0.81787 -4.6076 2.734 4.4646 1.2299 -4.0414 -5.7142 0.21978 0.15853 1.6549 -3.6282 0.2529 -2.5749 -5.3843 7.61 4.0356 2.9123 5.4158 -2.5253 -5.4421 -2.7774 -1.2705 0.23774 1.8685 6.1051 1.941 -2.5849 -2.0882 -5.7921 3.4366 -11.2 0.56488 3.1405 1.7732 -5.5162 
__label__4 0.6527 -2.5369 0.20219 1.0031 -1.3842 -6.3017 0.51108 4.5599 -3.9282 -3.1481 2.9315 2.4308 0.097424 -4.054 -2.8797 -1.3315 1.383 -9.1444 4.8848 -4.9058 -2.7179 -3.7284 1.6524 -0.17205 -3.4126 3.0612 0.4802 -4.8817 -5.9849 -2.3241 0.87604 -0.84119 -2.6813 0.28257 3.9979 -2.1968 -0.22368 -1.7736 -0.8222 -1.9177 -3.2591 -6.5363 -6.1944 -2.5715 -1.8497 -0.33565 -5.8594 -4.7623 2.5113 0.75074 -1.8817 -2.1999 2.4426 -5.9963 1.7243 -4.36 0.43936 -4.4479 1.0841 0.82619 -3.3109 -1.1043 0.091861 0.54609 -7.6156 5.0217 7.681 -0.54684 -5.6497 1.9802 7.1621 2.34 2.2829 -0.70346 -0.21435 1.8502 1.8287 1.1035 -1.1908 1.0817 5.3844 0.55658 -1.3045 -0.10189 2.3852 -1.472 -1.3929 1.5704 1.8638 -5.707 -8.2319 -0.048114 -2.0031 4.2818 -4.6883 1.5625 -1.9509 3.0502 -0.78865 7.9758 
__label__2 0.30954 0.30529 1.1129 2.6026 -1.9475 -0.32489 -1.8835 0.53776 2.5883 1.4023 -1.788 -2.0106 2.8262 2.3293 -0.32009 4.0869 4.2685 1.616 -2.4579 3.5853 1.1622 3.3855 -3.7211 0.79587 -1.8195 4.8055 4.7556 2.1692 -2.288 -0.81281 -0.80879 -3.3344 3.4112 2.0505 3.9704 2.3518 2.9094 2.0948 -5.0836 -1.0011 -7.8509 -0.7267 -3.3701 -3.2923 0.83399 -2.4557 3.4888 3.6522 0.10755 -3.8601 5.8746 2.3044 3.2297 5.3312 0.017556 -2.3508 -0.30864 4.2204 6.7283 1.9917 -1.1187 0.25753 -6.051 0.9568 -1.4375 -1.2046 2.1146 2.4124 5.0264 -0.32893 3.5883 1.0026 -4.4078 -4.3404 -1.3859 -2.7857 2.1867 -2.3435 2.1766 -3.4264 -3.5945 2.4537 -2.438 -0.34681 -4.6811 -1.0488 5.0573 0.25467 -0.90434 -1.772 1.229 -6.1928 -2.1092 -1.9138 2.1758 0.0074244 0.97074 -0.21484 1.9487 -1.3838 
__label__3 -1.3531 -6.4552 1.3858 5.8747 -0.91273 0.18471 -6.9603 2.5845 0.481 -1.491 -0.17304 -5.5985 1.2095 -4.7711 0.085179 -0.073474 0.31179 -2.4564 -2.4646 3.7181 -0.76218 -2.5864 1.9627 0.37095 3.4785 -3.7305 -8.235 -1.7787 -2.0284 -9.5502 0.61014 -0.15428 2.7698 -3.3812 -1.5606 -3.4951 4.5904 -2.1226 4.5822 1.2045 -0.3023 3.6505 3.063 -0.95057 0.46701 5.7863 -0.59719 6.32 4.6082 -1.5153 0.51062 -4.8789 8.7264 5.1428 0.032076 5.2391 -1.0941 -2.7196 1.5572 -1.074 0.64157 -5.7776 -0.054132 -0.33276 3.6168 -5.9437 4.1058 2.2649 -4.0743 -0.046181 1.4824 -1.1307 -4.1914 1.1887 5.1858 7.6131 -3.6353 -4.0149 -4.2688 4.8718 6.6561 -2.4056 -3.7261 -0.16049 0.28393 0.64024 -4.914 -3.4337 3.8568 4.2832 1.3022 -3.0109 -2.4141 5.5171 -0.067981 -7.0041 -7.8605 -2.9006 1.4635 -2.0635 
__label__5 -4.6534 1.1816 0.70868 5.1127 -0.62314 2.7017 0.28431 5.4804 -2.3535 1.8216 0.49913 -2.911 -4.717 -2.7579 -0.14657 -0.55622 5.1731 -1.8426 0.14624 1.0045 -1.3458 -2.5672 3.8395 -1.516 1.264 2.6511 -0.029769 5.4217 2.1526 0.66633 7.948 1.543 -1.8716 -4.7125 1.6907 -0.084449 -6.8267 -2.9159 2.3327 -5.2921 -2.0246 -1.2853 -2.5647 7.8401 0.59298 3.5227 -0.54177 1.4373 -6.0827 -6.112 -3.9008 0.68271 5.4074 -0.61216 4.9262 2.611 -2.4 3.9821 -1.6281 4.9867 3.5961 -1.322 -1.3419 4.7742 2.9297 -5.1146 3.6777 -1.3721 1.1315 5.4094 3.522 -4.6967 -6.5233 5.1386 -3.4784 -1.4278 -2.9746 -3.1599 2.1527 -3.4333 -4.7901 -1.4559 3.6877 1.0558 -2.9934 1.8571 -1.3118 -0.47154 0.62534 -6.7074 -2.6088 0.05832 -0.69475 5.3186 3.0765 6.2176 -2.4267 -2.179 -3.2872 0.73253 
__label__1 -0.2991 3.2607 0.34011 -5.9237 -2.1171 1.4668 -3.532 -0.19826 -0.96764 0.37899 5.4422 -2.723 -0.70351 4.3847 1.4888 -2.5332 -1.292 3.9823 0.22503 9.0804 -1.6153 1.1369 -4.7286 6.5201 1.6286 -0.3432 -6.4009 0.45134 -2.3232 -7.1076 -1.4119 1.4038 7.3189 8.2906 -2.9991 5.0654 0.586 1.3294 3.4387 6.0465 -0.6843 -1.3315 1.2839 -8.1426 1.8545 -1.7908 5.8314 -0.40055 1.9573 4.657 0.49729 -2.7807 -0.063656 -0.30738 0.33084 2.5265 -1.4301 3.8808 1.3943 -2.3654 -2.2294 -8.3125 2.7225 -5.3472 -0.58327 -3.2514 5.2484 2.823 1.8339 -0.36264 -1.4318 1.6168 -0.93646 -0.0013014 3.9856 1.8458 -3.5709 1.109 3.6549 -4.0093 4.5126 4.1846 -5.7481 7.0762 0.68518 5.1279 -1.215 -1.9247 -2.1113 1.1132 9.7867 -4.9937 -5.0758 -2.1412 -0.16869 4.9013 0.5215 -3.605 -3.0333 -3.1644 
__label__6 -3.2005 5.8333 -6.2365 3.7914 -4.3483 -1.8461 1.0083 1.6454 -3.8919 -3.805 2.1148 0.23637 6.8697 3.8561 5.2357 -4.6703 -1.1128 -0.84691 5.7034 -6.1356 -3.0814 -0.2636 -1.0455 -2.2853 -3.4535 -1.0414 -0.76438 0.59851 4.4013 2.3512 5.17 2.5856 4.5898 -0.64951 -4.7256 -4.4486 -1.0342 -2.4818 -2.1191 -1.5012 7.7874 1.6181 3.2528 -0.338 1.7939 4.643 -9.1284 -1.8894 -7.5752 0.12352 -3.5706 -1.6477 -2.8139 -7.7826 5.4367 -1.247 2.8925 0.34856 -1.9677 -1.715 2.1996 0.60942 6.0159 6.4319 0.40147 -2.304 -0.68124 1.1509 -0.70814 -0.84745 -1.2163 2.3257 7.6791 5.7659 1.6164 -4.5194 3.1972 6.9778 1.253 -2.8043 -3.5749 -1.9092 -3.7241 2.7689 -2.1985 3.7293 -1.8702 -1.75 -1.2443 -1.7132 -1.0597 3.5648 1.9366 0.6621 0.366 4.3082 3.7012 -2.6919 -3.0365 2.8411 
__label__13 3.468 -4.3489 0.84543 0.064944 3.7521 2.2306 -0.17669 -4.4736 0.6216 -0.95794 -0.26022 1.3578 5.232 -3.1576 2.8655 -2.5272 -0.16396 2.7516 1.4844 -3.9017 -1.5246 -3.7398 -0.78374 3.853 -5.7651 -4.784 -2.3224 -3.5728 3.7231 -3.9038 -5.6708 -2.5719 0.27864 -0.78859 1.1173 -4.2045 0.14565 -0.84566 -3.2075 3.2625 1.6844 5.2098 -5.1733 2.5309 0.71287 -1.2748 -0.89308 1.3465 6.1128 4.7891 -1.685 -3.5247 0.36557 2.8787 2.4727 0.35473 1.4809 -7.6396 0.095131 -5.1008 2.391 1.3075 3.01 0.42184 2.5603 2.2585 -3.5009 4.0394 -5.8949 -2.7222 -2.6972 -1.1625 8.3468 -5.7863 0.1495 2.349 2.2363 -4.6566 1.5258 3.6779 -0.075197 -1.1897 1.0137 -0.97098 0.97248 -0.65367 2.6146 1.1535 -2.107 4.9205 -2.7762 0.93369 -0.60628 -0.11087 -3.5325 -4.0868 2.114 -0.99623 -0.48808 3.9118 
__label__12 -1.2155 0.66384 -0.99519 2.2796 -0.38422 -4.999 -1.5027 2.3181 2.5904 -0.98083 1.3807 2.3536 5.134 1.428 2.4864 -0.74846 0.88006 2.4589 -1.4234 -5.4241 0.97866 0.88941 -0.32543 0.71216 1.4236 -3.1436 -1.0542 -4.629 -0.18433 3.6763 -1.8995 1.7732 -0.37494 -1.4345 -0.40597 -4.8792 6.3006 -1.7048 -0.24467 -4.0081 5.4199 3.4099 6.5749 -1.75 -2.7074 1.4077 -1.1342 4.9597 2.6963 -0.53588 5.7906 0.70385 3.0152 0.018217 -3.9917 2.1072 3.4122 -3.7662 0.6096 -3.4749 -1.9312 1.7266 -4.3229 2.9611 6.3751 0.0014281 -3.1587 3.6287 -0.84475 -5.8513 -1.9095 4.5121 1.3887 0.5559 3.3697 3.0592 3.5582 5.7154 -2.9479 5.1307 -1.5237 -4.9032 -0.4527 -1.6216 3.902 -1.159 0.52155 -3.2565 0.45563 4.1919 4.3876 5.5973 5.6714 0.83361 -2.1589 -4.4204 -2.5516 0.56135 4.8065 -2.7017 
__label__8 3.0663 -1.4456 1.0902 0.57411 5.8118 -1.3175 6.4751 -3.3023 -2.9446 -0.43145 -3.4145 0.088273 -7.4098 -0.78917 -6.2387 3.2547 -4.9152 3.0291 3.5208 5.2919 2.3629 1.8578 1.8177 -5.3242 -4.9348 -1.7585 8.1896 1.8247 2.3655 5.1135 2.1483 0.80421 -1.973 -0.75588 0.37989 2.9073 -0.27424 0.34889 1.8547 -0.69592 1.6469 1.5827 0.54469 3.8541 -1.6634 -2.5883 -0.93693 -6.7709 -4.3151 -4.1869 2.4735 3.1112 -6.2872 -1.2874 1.4518 -1.3331 1.0032 0.29611 -2.7276 3.7966 1.0483 3.4835 -1.2897 2.2477 -2.0643 5.9051 -3.5505 -2.2498 1.2009 1.0976 4.9632 -0.94508 2.8946 4.87 -1.7659 -5.6344 3.6255 1.166 1.8343 -1.1471 -2.6577 -1.5922 6.6935 -1.4598 -1.7292 0.11699 2.8724 4.3695 4.1586 -1.4551 -8.3982 -1.7863 0.23168 -4.272 0.14623 0.10875 5.6495 -2.7223 2.0841 0.88793 
__label__11 5.674 -3.6344 7.6466 -6.5906 -0.45237 1.6768 1.0395 -0.2903 1.4511 -0.22852 5.2205 0.70934 -3.1692 2.8788 0.58356 7.1273 -1.6367 0.40785 -2.2016 3.2862 0.72757 0.031627 -1.1264 4.8588 7.9073 5.6767 -1.0739 -0.49628 -5.9975 1.1615 -5.1405 1.292 -4.1736 -2.227 5.6926 -1.3759 0.96083 2.4803 0.21213 2.5289 -4.1991 0.45179 1.8184 -9.7662 0.50652 -2.6135 2.1175 -0.035674 5.5844 5.8823 1.4027 -6.3537 -3.3145 0.90271 -7.7348 -1.1985 -6.7977 1.017 -1.5006 2.6389 -0.070616 2.6833 -3.5147 -4.2657 2.0032 0.72517 -0.97481 -2.4944 -0.53416 -2.4745 -2.8017 4.7513 -3.8805 -3.3339 -2.8136 8.7068 -1.9988 -2.2578 0.76904 1.9871 4.3985 -0.75699 -8.4258 -5.2541 1.6229 -2.9223 2.9708 -1.9927 -0.32235 4.3951 -1.7966 0.60948 1.811 -1.842 -3.2456 3.5838 -1.9967 -0.71113 7.9455 -1.8032 
__label__7 -6.9102 10.435 -5.3566 -2.4844 -0.42082 6.423 1.4234 1.5274 4.0346 2.0721 -1.7716 2.1953 -2.4707 2.5547 3.9016 -1.082 2.929 0.99453 -2.3167 -4.1183 0.74191 8.163 1.692 0.13198 -0.31936 5.3014 2.635 4.7366 5.3946 3.2744 1.5915 -4.9816 -1.3021 4.8724 1.5834 4.8743 0.47869 3.5166 -4.983 -0.23687 4.4482 -3.5918 -0.2724 1.3056 -5.5601 0.15919 3.1267 -0.60819 1.4325 -4.7883 -1.2281 6.2008 -5.9003 -0.8837 -4.2485 -2.3112 2.9094 4.6107 0.85658 -0.25414 -2.6197 -0.25125 -3.5099 -1.7984 -0.69067 -2.361 -2.0931 -3.2429 7.8763 2.3764 -6.4485 0.31577 -3.1815 -1.8794 0.75218 -7.1153 -1.3602 4.7068 -1.4929 -6.4883 -5.1258 2.4627 1.0721 3.6977 0.52448 0.38325 -1.8332 0.71172 -3.0795 -2.2978 7.1562 3.9381 1.8883 -1.1257 2.4022 -0.64884 0.72434 2.9193 -5.7924 -0.87024 
__label__9 -1.409 0.93978 4.4987 -4.5914 -0.46006 -0.52011 2.7935 0.60999 0.86392 2.2343 1.2357 2.5721 -4.6375 -1.7808 1.6818 0.27984 3.8728 -3.0961 0.2346 -0.82841 1.8548 -1.7487 -0.25109 1.1623 -3.5363 4.3061 5.1373 2.224 -2.0803 4.0607 3.5073 -1.8662 -4.5442 0.42123 6.1886 2.4404 -4.9331 3.8582 -1.957 -1.1704 -3.3969 -5.6272 -1.7238 -0.71981 1.5107 -2.7612 0.58278 1.4801 2.2438 2.1222 -0.68849 -0.11803 -1.0765 -3.4425 -2.567 -1.6825 -1.4828 -0.59884 1.527 2.7959 -3.2029 1.135 -2.3476 -3.0725 -5.0013 5.5462 3.689 -5.5194 -0.36854 0.10242 1.2834 0.94776 0.1868 -2.3548 -3.9063 -0.044495 -4.7582 -0.58228 2.3892 -4.1235 -2.2656 1.4521 2.8167 -1.5139 1.5783 -2.0094 1.4083 3.2041 -1.5977 -6.5329 -1.9012 0.61393 2.3851 0.72463 -2.0035 6.688 2.6752 1.6971 -1.1015 3.5955 
