14 100
__label__10 2.3225 -1.9688 -2.0912 -6.0474 -0.036101 -1.0339 3.0448 -6.5701 2.2016 0.78147 -5.8586 3.6453 -2.6652 -2.2081 -4.7846 -2.1445 -4.9255 -2.4996 -2.6338 -2.2351 1.3799 -3.0808 0.0082445 -6.7216 4.5944 -4.452 -1.237 -3.4257 -0.53079 9.2027 -3.1766 4.6692 -4.9703 -0.83158 -5.7449 -2.2689 -7.4359 1.5986 5.8367 4.3771 -1.738 -0.49672 -0.35101 9.4375 2.6837 0.53905 2.301 -4.9739 -4.2045 7.5783 -3.2957 5.7167 -0.48347 -0.81837 2.1653 3.8186 2.712 0.97939 -5.7969 -3.7873 2.6716 6.7077 6.0313 -5.864 -2.318 1.4497 -7.9522 -3.6634 -3.3714 0.4398 -1.584 -4.1232 0.11251 0.89011 -2.948 -0.17288 1.27 -1.1454 -0.49153 1.0321 -1.2447 0.18607 4.9769 -0.48257 5.0774 0.33245 -1.8254 1.2318 -1.3963 1.168 1.0805 3.3149 0.99118 -0.20398 4.3081 -0.0069989 -0.16507 4.6326 -2.4483 -2.5744 
__label__14 3.6619 -2.0998 -2.9076 3.7471 3.5681 1.8174 -2.1988 -4.8065 -0.73841 2.3446 -5.3568 -2.3733 4.5293 2.0548 -3.7837 0.81444 -4.7321 4.685 -2.6458 1.4088 1.791 2.1465 1.0381 -2.3275 2.9433 -6.6179 -0.21528 1.3429 3.4798 -5.9321 -3.6649 -0.28298 3.5325 -1.1038 -9.1874 5.2118 4.8375 -3.4125 0.19752 -1.637 2.6448 3.7535 3.2386 2.3827 0.77564 -2.1526 1.5796 0.2423 -4.9889 -4.9842 -0.24193 2.7324 -3.2785 6.8307 0.0033719 -2.1273 -1.2693 -0.0921 -0.22839 0.6951 1.9243 -1.2406 4.6147 2.3277 1.8173 -0.87575 -4.5822 2.839 4.4815 1.2596 -4.0155 -5.7455 0.23978 0.1325 1.697 -3.7406 0.34544 -2.555 -5.3472 7.5722 4.0148 2.9149 5.4399 -2.4712 -5.4822 -2.7373 -1.2802 0.2458 1.883 6.0694 1.8996 -2.6235 -2.1287 -5.7749 3.404 -11.287 0.55619 3.164 1.7025 -5.4655 
__label__4 0.67693 -2.5649 0.20373 0.96442 -1.4145 -6.3106 0.46008 4.5081 -3.9169 -3.1482 2.9703 2.4574 0.20162 -4.0014 -2.785 -1.3761 1.4282 -9.1112 4.8489 -4.9929 -2.7126 -3.7247 1.605 -0.12221 -3.453 3.0363 0.47797 -4.8778 -5.9219 -2.2995 0.88214 -0.87109 -2.5949 0.28739 3.9921 -2.2278 -0.19002 -1.7889 -0.8761 -1.9512 -3.2117 -6.5304 -6.1784 -2.5705 -1.8236 -0.32769 -5.8799 -4.7122 2.5197 0.75864 -1.8664 -2.2333 2.5004 -6.0296 1.7223 -4.3819 0.43469 -4.4678 1.1004 0.82025 -3.3455 -1.1189 0.075493 0.51482 -7.6791 5.0423 7.7406 -0.59784 -5.6249 1.9728 7.1334 2.326 2.2743 -0.77497 -0.24921 1.8485 1.751 1.0554 -1.159 1.0225 5.3682 0.6186 -1.3499 -0.10287 2.3693 -1.5003 -1.3469 1.5856 1.8158 -5.7689 -8.184 -0.10061 -2.039 4.2859 -4.6608 1.6403 -1.8857 3.0791 -0.81606 7.9578 
__label__2 0.34341 0.29293 1.1314 2.5348 -1.9446 -0.30771 -1.8812 0.46951 2.6164 1.4055 -1.7683 -1.9983 2.8269 2.3555 -0.28519 4.0888 4.3072 1.5932 -2.4708 3.5837 1.1776 3.3897 -3.751 0.82311 -1.8659 4.8267 4.7546 2.1665 -2.308 -0.83214 -0.78901 -3.3523 3.4714 2.0567 3.9739 2.3286 2.9106 2.0808 -5.1158 -1.0147 -7.8594 -0.73479 -3.3779 -3.3005 0.86902 -2.4197 3.4611 3.6969 0.081036 -3.8201 5.854 2.2877 3.2586 5.3239 0.044348 -2.3321 -0.30167 4.2179 6.7099 1.9516 -1.1063 0.27293 -6.0008 0.94554 -1.4267 -1.2139 2.0666 2.4098 5.0272 -0.34461 3.5444 1.0099 -4.3876 -4.3727 -1.4075 -2.7871 2.16 -2.3597 2.2046 -3.4669 -3.6331 2.4773 -2.4397 -0.36634 -4.6715 -1.0575 5.0901 0.27286 -0.95488 -1.7765 1.2773 -6.1885 -2.0823 -1.9587 2.1933 0.038039 1.0304 -0.20452 1.9585 -1.4115 
__label__3 -1.2831 -6.4096 1.4016 5.8308 -0.85198 0.22389 -6.8843 2.5399 0.48971 -1.482 -0.20544 -5.606 1.0818 -4.7933 -0.030399 0.011345 0.291 -2.4464 -2.4431 3.8402 -0.77349 -2.5636 1.9482 0.37058 3.4241 -3.682 -8.2427 -1.7914 -2.0675 -9.678 0.61881 -0.19672 2.7636 -3.3536 -1.4766 -3.4701 4.6065 -2.1341 4.5372 1.1962 -0.37929 3.6371 2.9593 -1.0304 0.46104 5.7647 -0.62787 6.3039 4.6261 -1.4869 0.49862 -4.9051 8.6887 5.1827 0.079539 5.2178 -1.0602 -2.732 1.5785 -1.1333 0.68779 -5.8233 -0.016204 -0.2533 3.669 -5.9642 4.0311 2.3797 -4.104 -0.053713 1.5013 -1.1172 -4.1008 1.2391 5.2312 7.5295 -3.4916 -3.9675 -4.2533 4.9112 6.6681 -2.4306 -3.7215 -0.1128 0.22536 0.68613 -4.9073 -3.4381 3.9036 4.3417 1.2429 -3.0506 -2.4465 5.4655 -0.067724 -7.0858 -7.838 -2.9484 1.5068 -2.047 
__label__5 -4.6619 1.1606 0.65479 5.1475 -0.67017 2.6552 0.19008 5.5513 -2.3322 1.7994 0.4768 -2.9234 -4.7937 -2.755 -0.2199 -0.5027 5.1216 -1.9135 0.11743 1.082 -1.3181 -2.4987 3.8446 -1.5604 1.3391 2.6981 -0.040144 5.3673 2.0549 0.67994 7.9397 1.5734 -1.8794 -4.7226 1.6489 -0.061917 -6.7951 -2.9227 2.4215 -5.2741 -2.0721 -1.3354 -2.5037 7.8316 0.56993 3.5573 -0.53423 1.3895 -6.1432 -6.141 -3.8669 0.74505 5.3923 -0.60119 4.8944 2.6286 -2.3989 4.0163 -1.6729 4.9923 3.5907 -1.3253 -1.3137 4.7494 2.9151 -5.1378 3.6593 -1.3936 1.1316 5.427 3.5631 -4.6911 -6.6095 5.1683 -3.475 -1.3974 -2.9872 -3.1493 2.1097 -3.4271 -4.7202 -1.4435 3.7058 1.0327 -2.9459 1.843 -1.3468 -0.46829 0.67175 -6.6899 -2.6171 0.045609 -0.69598 5.3257 3.0981 6.1725 -2.5058 -2.1538 -3.2673 0.71111 
__label__1 -0.41523 3.2955 0.30396 -5.7213 -2.1708 1.4675 -3.6085 -0.023147 -1.0062 0.35276 5.4233 -2.7878 -0.54261 4.3569 1.5734 -2.6267 -1.267 4.006 0.25801 8.9914 -1.6649 1.1128 -4.6999 6.5388 1.7731 -0.39728 -6.427 0.49014 -2.2849 -6.9157 -1.5538 1.4661 7.2424 8.2619 -3.0557 5.074 0.54054 1.4298 3.4407 6.1718 -0.65507 -1.2554 1.3568 -8.1216 1.8886 -1.8633 5.9646 -0.34336 2.0302 4.6938 0.51212 -2.7686 -0.1277 -0.29449 0.20048 2.4712 -1.4947 3.9324 1.4803 -2.2896 -2.268 -8.2915 2.6115 -5.3552 -0.58032 -3.2356 5.3427 2.7939 1.8612 -0.38102 -1.4454 1.6533 -0.95987 -0.032034 3.9718 1.8818 -3.5898 1.1032 3.6544 -4.0198 4.419 4.1582 -5.8079 7.0657 0.67553 5.094 -1.1633 -1.9538 -2.1621 1.2142 9.8273 -4.9465 -5.0027 -2.1342 -0.17985 4.9167 0.50315 -3.6135 -3.0068 -3.1933 
__label__6 -3.2008 5.8025 -6.251 3.7805 -4.3207 -1.7984 0.98377 1.6571 -3.9279 -3.8029 2.1736 0.2458 6.7994 3.802 5.32 -4.7519 -1.0534 -0.93188 5.7397 -6.1539 -3.1024 -0.32104 -1.0058 -2.2331 -3.4599 -1.0417 -0.82028 0.65633 4.4245 2.3447 5.2276 2.6072 4.5659 -0.66975 -4.7303 -4.4278 -1.1256 -2.4769 -2.0929 -1.4823 7.8447 1.6224 3.2943 -0.30341 1.8219 4.6274 -9.0919 -1.876 -7.5947 0.14674 -3.6658 -1.6902 -2.8228 -7.819 5.4225 -1.2133 2.8208 0.36181 -2.0534 -1.6942 2.2172 0.6734 6.0425 6.3438 0.44034 -2.2819 -0.73842 1.049 -0.72594 -0.84293 -1.3083 2.3049 7.6681 5.7405 1.5541 -4.4552 3.0738 6.9541 1.2478 -2.7985 -3.5933 -1.9007 -3.6777 2.7068 -2.1441 3.6857 -1.8762 -1.7493 -1.3031 -1.6905 -0.98452 3.6522 2.02 0.65278 0.35904 4.3691 3.7347 -2.687 -3.0391 2.8044 
__label__13 3.451 -4.3543 0.82894 0.095017 3.7922 2.2205 -0.17117 -4.4763 0.61825 -0.96088 -0.25045 1.3766 5.1729 -3.1617 2.8768 -2.5366 -0.13987 2.7529 1.4793 -3.9009 -1.5092 -3.7439 -0.76753 3.8638 -5.7945 -4.7737 -2.3087 -3.5548 3.7582 -3.9033 -5.6285 -2.5863 0.2879 -0.78091 1.1169 -4.2046 0.11985 -0.86781 -3.1904 3.234 1.733 5.2115 -5.1749 2.6006 0.70181 -1.2503 -0.90683 1.3481 6.0843 4.7725 -1.71 -3.505 0.37745 2.8644 2.5061 0.40713 1.5116 -7.6719 0.047051 -5.1341 2.4099 1.2987 3.0256 0.44096 2.6165 2.2342 -3.5377 4.053 -5.919 -2.7256 -2.7089 -1.1771 8.3747 -5.7682 0.15199 2.3547 2.2273 -4.6538 1.5352 3.6707 -0.095909 -1.205 1.051 -0.95709 1.0005 -0.64238 2.6066 1.1621 -2.1169 4.9104 -2.7641 0.97316 -0.58997 -0.091207 -3.5176 -4.0487 2.1209 -1.0033 -0.52225 3.922 
__label__12 -1.189 0.63045 -0.96874 2.2937 -0.39672 -5.0264 -1.4851 2.3158 2.5756 -1.0022 1.3721 2.3362 5.1665 1.4488 2.4733 -0.72216 0.85683 2.4463 -1.411 -5.4259 0.97935 0.90819 -0.32709 0.68839 1.419 -3.1493 -1.0488 -4.6242 -0.19109 3.6218 -1.8956 1.7592 -0.31843 -1.429 -0.42878 -4.8961 6.3719 -1.7336 -0.26295 -4.0214 5.3895 3.3824 6.5642 -1.7889 -2.6994 1.4304 -1.1927 4.9525 2.6932 -0.54029 5.7964 0.67462 3.0201 0.019893 -3.9867 2.0878 3.3953 -3.7718 0.61709 -3.444 -1.9347 1.7189 -4.3254 2.95 6.3432 0.024745 -3.1411 3.6143 -0.85016 -5.848 -1.8787 4.5197 1.3687 0.55722 3.3622 3.0776 3.5516 5.6962 -2.9757 5.1482 -1.4896 -4.8867 -0.47766 -1.6603 3.8839 -1.1889 0.52276 -3.248 0.47655 4.1884 4.3403 5.5673 5.6666 0.80377 -2.1537 -4.4177 -2.5302 0.56948 4.8524 -2.6986 
__label__8 3.0255 -1.4811 1.0344 0.66665 5.7672 -1.3809 6.4086 -3.2433 -2.9504 -0.44283 -3.4459 0.10077 -7.4028 -0.74649 -6.2779 3.2804 -4.9474 3.0287 3.5065 5.3629 2.3692 1.8534 1.7633 -5.3265 -4.9526 -1.7593 8.1827 1.8071 2.3241 5.0783 2.1401 0.81676 -1.9004 -0.75167 0.34621 2.8978 -0.29424 0.33237 1.8564 -0.6878 1.5814 1.577 0.49099 3.8589 -1.6321 -2.5976 -0.93877 -6.7696 -4.3412 -4.1371 2.4595 3.0959 -6.2468 -1.2805 1.4823 -1.3295 0.9902 0.29122 -2.712 3.7834 1.0565 3.4828 -1.2628 2.2518 -2.0672 5.908 -3.5487 -2.2342 1.1696 1.0793 4.9981 -0.93919 2.9165 4.8266 -1.8228 -5.6388 3.6654 1.1475 1.8616 -1.142 -2.6882 -1.5831 6.6863 -1.5095 -1.7238 0.09948 2.9396 4.3877 4.1219 -1.4485 -8.4084 -1.7887 0.2325 -4.3023 0.15733 0.17186 5.7033 -2.7273 2.1156 0.90137 
__label__11 5.6072 -3.7026 7.538 -6.2631 -0.49142 1.7117 0.88156 -0.16014 1.4679 -0.1442 5.0504 0.68407 -3.2795 2.9303 0.41376 7.2647 -1.7273 0.51527 -2.2937 3.4941 0.78613 0.08602 -1.1775 4.8163 7.8925 5.7462 -0.97266 -0.43674 -6.0417 1.1288 -5.2103 1.2014 -4.1991 -2.2169 5.7462 -1.2727 0.89862 2.5213 0.14524 2.5741 -4.3486 0.3959 1.6528 -9.6912 0.53872 -2.7058 2.1666 -0.054724 5.5826 5.9014 1.3838 -6.3462 -3.3063 0.98292 -7.6877 -1.2561 -6.8164 0.94809 -1.4529 2.644 -0.02951 2.7015 -3.504 -4.2344 1.9976 0.78687 -1.0244 -2.4666 -0.54972 -2.4846 -2.7561 4.709 -3.8372 -3.4662 -2.9362 8.6503 -1.9239 -2.3544 0.80845 2.0168 4.2904 -0.7427 -8.3366 -5.3864 1.5964 -3.0269 3.1423 -1.9101 -0.38441 4.4312 -1.8612 0.59419 1.8449 -1.8573 -3.2675 3.5924 -1.9329 -0.73446 7.8953 -1.7185 
__label__7 -6.8937 10.449 -5.3797 -2.4732 -0.38676 6.3879 1.4236 1.5625 4.0466 2.0547 -1.8011 2.2167 -2.437 2.5614 3.8429 -1.0637 2.8603 1.0387 -2.3183 -4.1481 0.7462 8.2082 1.7227 0.072629 -0.28385 5.2619 2.7003 4.6903 5.3948 3.3835 1.5524 -4.9337 -1.4107 4.8616 1.5823 4.8783 0.5239 3.5358 -4.9494 -0.2493 4.4553 -3.5597 -0.22426 1.3238 -5.635 0.11731 3.172 -0.68658 1.4236 -4.8384 -1.1704 6.2755 -5.9579 -0.88614 -4.2949 -2.3281 2.929 4.6445 0.84929 -0.21125 -2.6463 -0.18719 -3.6067 -1.7858 -0.72029 -2.3128 -2.0323 -3.2573 7.8696 2.3851 -6.3676 0.35396 -3.246 -1.8317 0.78069 -7.0912 -1.2952 4.7702 -1.5408 -6.4315 -5.0189 2.4369 1.0317 3.7703 0.52038 0.43698 -1.9438 0.65778 -2.9979 -2.3737 7.0858 3.8862 1.8058 -1.0112 2.3557 -0.68098 0.57596 2.886 -5.8401 -0.82454 
__label__9 -1.4442 0.96406 4.4944 -4.5848 -0.45148 -0.51047 2.7889 0.62839 0.86961 2.2489 1.2297 2.5753 -4.6795 -1.7964 1.6839 0.27303 3.8812 -3.0971 0.23677 -0.8119 1.8589 -1.7473 -0.24015 1.1628 -3.5484 4.3035 5.1273 2.226 -2.0859 4.0604 3.5275 -1.8641 -4.5567 0.42245 6.2135 2.4412 -4.946 3.8648 -1.9416 -1.1613 -3.3952 -5.6285 -1.7209 -0.71238 1.5036 -2.752 0.59621 1.4904 2.2668 2.1301 -0.68736 -0.11787 -1.0725 -3.4514 -2.5753 -1.6603 -1.4774 -0.60919 1.5292 2.7867 -3.207 1.1142 -2.3437 -3.0714 -4.9873 5.5356 3.6772 -5.5151 -0.365 0.098034 1.2724 0.94483 0.19031 -2.3403 -3.8926 -0.054093 -4.7667 -0.57312 2.4008 -4.1354 -2.2886 1.4334 2.8395 -1.4978 1.595 -1.9939 1.4117 3.2085 -1.5962 -6.5287 -1.8762 0.63152 2.3986 0.73194 -1.9955 6.6832 2.6721 1.6838 -1.1 3.5923 
