14 10
__label__10 -0.22226 1.2316 0.83997 0.36822 0.38679 0.16963 0.23116 0.095407 0.4153 0.09956 
__label__14 -0.22994 -0.055934 -0.32721 0.27311 0.21875 0.021537 -0.18758 0.13841 -0.20372 0.070247 
__label__4 0.19837 -0.44273 0.14112 -0.78824 -0.40788 -0.32086 -0.092152 0.17229 0.034024 -0.12837 
__label__2 0.19389 -0.30333 -0.30039 0.12812 0.0048364 0.46389 -0.027744 -0.80557 -0.25073 0.20108 
__label__3 0.15172 -0.75575 -0.11884 -0.45528 -0.14859 -0.18052 -0.18316 0.17302 -0.18764 -0.18388 
__label__5 0.21896 -0.54751 -0.10153 -0.43097 -0.25239 -0.029366 -0.10524 0.095643 -0.34599 -0.083617 
__label__1 -0.13222 -0.47731 -0.23118 0.17292 0.042557 -0.039469 -0.07901 0.047481 -0.19668 -0.19611 
__label__6 -0.096248 -0.585 -0.53291 0.042726 0.10056 -0.092769 -0.20283 0.13176 -0.48748 -0.2253 
__label__13 0.076969 0.06449 -0.11342 0.43913 0.22887 -0.10641 -0.22692 0.36562 -0.018172 -0.21829 
__label__12 -0.19603 -0.62682 -0.572 0.46353 0.32088 -0.441 -0.56546 0.13552 -0.16825 -0.20421 
__label__8 0.19687 1.401 0.25458 0.023146 -0.10566 0.37675 0.57904 -0.39692 -0.11821 0.42878 
__label__11 -0.3051 1.043 0.76983 0.29634 0.5143 0.16128 0.074731 0.22196 0.37739 0.0094329 
__label__7 -0.092129 -0.23905 -0.27498 0.30926 -0.023539 0.20912 0.052115 -0.24287 -0.31995 -0.060332 
__label__9 0.23756 0.2903 0.56485 -0.84235 -0.88038 -0.19212 0.73254 -0.13191 1.4694 0.49093 
