14 10
__label__10 -0.22285 1.2281 0.8383 0.36533 0.3858 0.17167 0.23302 0.095341 0.41345 0.099388 
__label__14 -0.22964 -0.055825 -0.32723 0.273 0.21851 0.021256 -0.1878 0.13833 -0.20374 0.070287 
__label__4 0.1988 -0.44242 0.14112 -0.78791 -0.40801 -0.32191 -0.093035 0.1723 0.03469 -0.12859 
__label__2 0.19394 -0.30292 -0.30013 0.12821 0.0049201 0.46355 -0.027876 -0.80529 -0.25051 0.20127 
__label__3 0.15187 -0.75476 -0.11889 -0.4542 -0.14826 -0.18125 -0.18397 0.17285 -0.1871 -0.1839 
__label__5 0.21917 -0.54647 -0.10136 -0.4302 -0.25205 -0.029875 -0.10594 0.095441 -0.34556 -0.083511 
__label__1 -0.1322 -0.47721 -0.23125 0.17317 0.042613 -0.039924 -0.079414 0.047525 -0.19659 -0.19621 
__label__6 -0.095687 -0.58461 -0.53276 0.043137 0.1007 -0.09325 -0.2034 0.13162 -0.48742 -0.22527 
__label__13 0.077021 0.064323 -0.11369 0.43933 0.22878 -0.10687 -0.22729 0.36567 -0.018152 -0.2184 
__label__12 -0.19547 -0.62671 -0.5722 0.46377 0.32098 -0.44139 -0.56586 0.13555 -0.1683 -0.20422 
__label__8 0.19661 1.4006 0.25484 0.02254 -0.10575 0.37751 0.57969 -0.39696 -0.11837 0.42903 
__label__11 -0.30606 1.042 0.76988 0.29482 0.51378 0.16275 0.076258 0.22214 0.37661 0.0093672 
__label__7 -0.091911 -0.23908 -0.27492 0.3092 -0.023603 0.209 0.052044 -0.24289 -0.31992 -0.060288 
__label__9 0.23734 0.29064 0.56498 -0.84193 -0.88007 -0.19198 0.73289 -0.13179 1.4697 0.49103 
