14 100
__label__10 2.3791 -1.9769 -2.0415 -6.0262 -0.13237 -1.0447 3.0413 -6.5724 2.2892 0.79682 -5.9466 3.7949 -2.6354 -2.1348 -4.8092 -2.002 -4.9599 -2.3892 -2.7707 -2.1977 1.4504 -2.9971 -0.097309 -6.7277 4.6476 -4.2764 -1.087 -3.2899 -0.6046 9.3264 -3.2757 4.6383 -4.8828 -0.83163 -5.5216 -2.1794 -7.4915 1.6621 5.7916 4.3659 -1.891 -0.642 -0.37194 9.3753 2.6674 0.46061 2.3367 -4.8599 -4.2777 7.5339 -3.175 5.8441 -0.44154 -0.81077 2.1252 3.8499 2.7398 1.1027 -5.7256 -3.7737 2.7035 6.7616 5.9302 -5.8974 -2.3742 1.4848 -8.0449 -3.6271 -3.2974 0.44589 -1.5925 -4.1785 0.08533 0.85825 -2.8802 -0.44953 1.2775 -1.1431 -0.55063 0.98465 -1.4838 0.13017 5.0482 -0.48749 4.9548 0.38407 -1.7946 1.2666 -1.4131 1.2766 1.2101 3.252 0.97556 -0.16658 4.2955 0.062235 -0.10077 4.4787 -2.5954 -2.3265 
__label__14 3.5642 -2.2034 -2.8921 3.8626 3.5113 1.6897 -2.2625 -4.559 -0.85828 2.2756 -5.234 -2.3821 4.3947 1.943 -3.8074 0.78147 -4.6636 4.4858 -2.5796 1.365 1.7537 2.0621 1.1352 -2.3357 2.9819 -6.5841 -0.30251 1.4327 3.5031 -5.9866 -3.7019 -0.27188 3.5293 -1.07 -9.3453 5.3375 4.7511 -3.4261 0.22609 -1.5358 2.6644 3.7463 3.1861 2.4165 0.81652 -2.1966 1.682 0.12891 -4.9852 -4.8243 -0.40923 2.7019 -3.4512 6.847 -0.024624 -2.1333 -1.3814 -0.09864 -0.30511 0.68305 1.9213 -1.1685 4.6864 2.1923 1.7608 -0.80637 -4.6717 2.7506 4.4372 1.2854 -4.0742 -5.7737 0.28779 0.087799 1.6298 -3.6588 0.29768 -2.5761 -5.3584 7.578 4.053 3.0041 5.4592 -2.4875 -5.4541 -2.7548 -1.2746 0.2945 1.8089 6.1076 1.9147 -2.5942 -2.1293 -5.7869 3.4637 -11.276 0.58228 3.1563 1.6438 -5.4448 
__label__4 0.67463 -2.6081 0.29518 0.97248 -1.3824 -6.2879 0.48351 4.4704 -3.8829 -3.1161 2.9592 2.4473 0.074437 -4.0449 -2.8461 -1.3373 1.3995 -9.0929 4.8388 -4.8792 -2.6679 -3.7337 1.5914 -0.090339 -3.4638 3.0164 0.47298 -4.9246 -5.9831 -2.3017 0.82992 -0.8677 -2.6726 0.34365 3.9907 -2.1898 -0.22506 -1.7034 -0.82454 -1.8505 -3.2995 -6.5276 -6.1986 -2.5588 -1.7922 -0.38627 -5.7796 -4.749 2.5892 0.80378 -1.8877 -2.2481 2.511 -6.012 1.7443 -4.3519 0.451 -4.5057 1.1098 0.80862 -3.3606 -1.1496 0.10149 0.51379 -7.6243 5.0313 7.7763 -0.54244 -5.6526 1.9504 7.128 2.3358 2.357 -0.78033 -0.18805 1.8291 1.7719 1.0749 -1.142 1.0382 5.3227 0.60928 -1.2555 -0.084674 2.3874 -1.4681 -1.327 1.6119 1.828 -5.755 -8.1836 -0.10843 -2.0408 4.252 -4.6974 1.5604 -1.9147 3.0542 -0.84454 7.9423 
__label__2 0.34161 0.28091 1.1419 2.5604 -1.9386 -0.33944 -1.921 0.51241 2.6004 1.4235 -1.7714 -2.0137 2.821 2.3561 -0.32056 4.0914 4.2402 1.6477 -2.4901 3.6172 1.1693 3.3818 -3.7459 0.8193 -1.8132 4.747 4.7069 2.1572 -2.283 -0.85859 -0.81156 -3.3265 3.4609 2.0334 3.9211 2.3201 2.9277 2.0381 -5.0599 -1.0293 -7.8501 -0.70203 -3.3616 -3.2777 0.85971 -2.4376 3.4913 3.7033 0.10896 -3.8336 5.8679 2.2572 3.2935 5.3487 0.052428 -2.3293 -0.32895 4.1833 6.7191 1.9719 -1.1113 0.24383 -6.0125 0.9397 -1.3887 -1.2197 2.1148 2.4254 5.0238 -0.33834 3.5664 0.97601 -4.4005 -4.3642 -1.4068 -2.7595 2.1488 -2.3784 2.1992 -3.4148 -3.6023 2.4801 -2.4075 -0.34368 -4.6933 -1.0563 5.0733 0.26827 -0.9165 -1.8087 1.2382 -6.2081 -2.1131 -1.9167 2.1752 0.014327 0.99713 -0.22047 1.936 -1.3874 
__label__3 -1.3462 -6.482 1.3172 5.9395 -0.97666 0.17883 -6.9164 2.6252 0.45241 -1.5065 -0.19853 -5.6034 1.1353 -4.8141 0.020488 -0.077632 0.3103 -2.5668 -2.4457 3.7047 -0.83249 -2.6238 1.9946 0.31304 3.4985 -3.7164 -8.3683 -1.755 -2.0107 -9.7258 0.66572 -0.14504 2.8032 -3.3698 -1.655 -3.4864 4.5491 -2.1326 4.5503 1.2595 -0.38439 3.6717 2.9689 -0.96401 0.50141 5.7698 -0.58529 6.2952 4.5629 -1.4337 0.44181 -4.8795 8.6794 5.1939 0.060048 5.2106 -1.1065 -2.6836 1.5595 -1.1177 0.71166 -5.7142 0.019727 -0.35792 3.6241 -5.9726 3.9296 2.2057 -4.0937 -0.020191 1.4236 -1.1617 -4.2198 1.1555 5.0518 7.6376 -3.5512 -4.0308 -4.2566 4.898 6.6921 -2.4035 -3.8064 -0.22562 0.30531 0.62423 -4.9068 -3.4452 3.8032 4.3317 1.2349 -2.9222 -2.3234 5.4245 -0.017818 -6.9557 -7.8236 -2.8344 1.5685 -2.075 
__label__5 -4.6846 1.2252 0.68636 5.0827 -0.65113 2.6591 0.23174 5.5406 -2.3562 1.8199 0.50298 -2.9239 -4.7481 -2.6808 -0.19104 -0.54583 5.1054 -1.8681 0.14094 1.0269 -1.3348 -2.5133 3.8426 -1.5533 1.3309 2.6382 -0.031288 5.3447 2.0723 0.76142 7.9843 1.6117 -1.8724 -4.7429 1.5991 -0.16582 -6.7905 -2.9734 2.4246 -5.3248 -1.9868 -1.279 -2.513 7.8666 0.59325 3.5886 -0.57092 1.356 -6.1541 -6.073 -3.916 0.70544 5.3796 -0.64174 4.9008 2.6375 -2.4343 4.0289 -1.7149 5.0063 3.5729 -1.2433 -1.3149 4.7154 2.9152 -5.0875 3.6302 -1.4367 1.09 5.3909 3.5621 -4.6596 -6.6044 5.1718 -3.5221 -1.3259 -2.9836 -3.1463 2.1632 -3.4137 -4.7008 -1.4383 3.6852 1.0671 -2.9246 1.8773 -1.3446 -0.48512 0.65787 -6.7639 -2.639 0.029588 -0.76246 5.3809 3.1043 6.2501 -2.5004 -2.1955 -3.3432 0.73197 
__label__1 -0.19262 3.2741 0.33271 -5.9267 -2.0225 1.5633 -3.4337 -0.34783 -1.0101 0.35667 5.4342 -2.7826 -0.62215 4.3717 1.6192 -2.6099 -1.2041 4.0221 0.3045 9.0864 -1.637 1.1161 -4.7276 6.5483 1.7327 -0.2862 -6.342 0.41636 -2.3843 -6.9133 -1.4077 1.489 7.2111 8.2543 -2.8523 5.0309 0.51693 1.4639 3.403 6.0489 -0.58831 -1.3617 1.4276 -8.1721 1.8183 -1.7623 5.7691 -0.37284 1.8939 4.5485 0.57519 -2.7606 -0.068602 -0.40265 0.27764 2.5507 -1.362 3.9593 1.3545 -2.3071 -2.2106 -8.4278 2.6467 -5.2229 -0.53853 -3.356 5.3559 2.8607 1.9032 -0.38809 -1.3812 1.6801 -0.9935 0.22592 4.1025 1.8527 -3.5282 1.1776 3.5863 -3.9613 4.5367 4.0632 -5.9278 7.0604 0.70576 5.1513 -1.2461 -2.0728 -2.0725 1.3327 9.9305 -4.9324 -5.1063 -2.0758 -0.13242 4.8905 0.41267 -3.6891 -2.9094 -3.2808 
__label__6 -3.2243 5.8568 -6.2358 3.7931 -4.2779 -1.8417 0.9642 1.6415 -3.87 -3.7651 2.1122 0.2378 6.8922 3.8426 5.3066 -4.7344 -1.0248 -0.83483 5.7154 -6.1451 -3.0503 -0.24981 -1.0392 -2.2344 -3.5532 -1.0762 -0.67152 0.57615 4.381 2.4115 5.2229 2.5446 4.5144 -0.65263 -4.6639 -4.4505 -1.0107 -2.4382 -2.1714 -1.5646 7.8573 1.6348 3.2853 -0.30338 1.7734 4.622 -9.1368 -1.7978 -7.5045 0.03105 -3.5239 -1.653 -2.7511 -7.8047 5.4197 -1.2775 2.9434 0.24071 -1.9137 -1.7071 2.1095 0.58756 5.9452 6.4924 0.44099 -2.2678 -0.6005 1.1873 -0.68987 -0.87941 -1.1895 2.3768 7.7488 5.7327 1.6396 -4.5218 3.1891 7.0475 1.2454 -2.7896 -3.6191 -1.9228 -3.6201 2.7465 -2.1739 3.6775 -1.8148 -1.7365 -1.2561 -1.8493 -1.0484 3.6007 2.0337 0.69616 0.29022 4.2364 3.7054 -2.6905 -3.0548 2.8804 
__label__13 3.4579 -4.3206 0.88494 0.013841 3.785 2.217 -0.19097 -4.483 0.65371 -0.92969 -0.23438 1.3877 5.1928 -3.1207 2.8878 -2.5372 -0.18307 2.7968 1.4524 -3.8783 -1.4961 -3.7396 -0.80625 3.8925 -5.7761 -4.8117 -2.321 -3.6111 3.7023 -3.8396 -5.6504 -2.5488 0.27008 -0.81012 1.1253 -4.258 0.12754 -0.86983 -3.1393 3.2392 1.6975 5.2369 -5.1355 2.5561 0.73106 -1.2508 -0.89014 1.3846 6.1348 4.8437 -1.6794 -3.553 0.428 2.8613 2.4548 0.40909 1.473 -7.6815 0.072282 -5.1249 2.381 1.3254 2.9963 0.40017 2.6087 2.2891 -3.5029 4.0315 -5.9516 -2.7701 -2.6953 -1.1321 8.3423 -5.8129 0.12652 2.4178 2.1828 -4.6636 1.5808 3.659 -0.095777 -1.2139 1.0662 -0.98692 1.0389 -0.65606 2.6265 1.1752 -2.1271 4.8479 -2.7714 0.94938 -0.55101 -0.088542 -3.5729 -3.9886 2.1128 -0.98853 -0.49447 3.9021 
__label__12 -1.1707 0.63361 -0.99702 2.2934 -0.36825 -5.001 -1.4875 2.2876 2.5904 -1.0034 1.333 2.3378 5.1542 1.4538 2.4122 -0.6671 0.80607 2.4913 -1.4581 -5.4004 0.99344 0.95956 -0.31257 0.65589 1.4809 -3.1547 -1.0471 -4.6367 -0.18317 3.6418 -1.9382 1.7614 -0.34856 -1.466 -0.44714 -4.903 6.3987 -1.7425 -0.23089 -4.038 5.3875 3.3862 6.5865 -1.7607 -2.7498 1.4222 -1.1608 4.9361 2.6795 -0.59626 5.8118 0.72566 3.0228 0.034244 -3.9993 2.0871 3.3978 -3.7378 0.60638 -3.4227 -1.9296 1.7338 -4.3622 2.9385 6.3507 0.012632 -3.1713 3.598 -0.81997 -5.8146 -1.8763 4.4856 1.2947 0.57191 3.363 3.0487 3.5557 5.6737 -2.999 5.1504 -1.4848 -4.8901 -0.46092 -1.6575 3.8595 -1.1966 0.49488 -3.2498 0.51574 4.1929 4.3284 5.5609 5.6273 0.82818 -2.1312 -4.4608 -2.5852 0.59625 4.8396 -2.7247 
__label__8 3.0275 -1.4418 1.0149 0.68156 5.7669 -1.3537 6.3848 -3.2525 -2.916 -0.42108 -3.4735 0.065057 -7.3834 -0.75273 -6.2734 3.2768 -4.9274 3.0389 3.5058 5.3433 2.3879 1.8776 1.7874 -5.342 -4.969 -1.7632 8.2094 1.7958 2.3537 5.0969 2.1739 0.77778 -1.9395 -0.74061 0.37515 2.9092 -0.23402 0.33112 1.8403 -0.70959 1.6184 1.5914 0.54142 3.8602 -1.6316 -2.5758 -0.94474 -6.7415 -4.3262 -4.1878 2.4948 3.1142 -6.247 -1.2689 1.4437 -1.3456 1.0016 0.28323 -2.697 3.7934 1.0411 3.4729 -1.2913 2.2782 -2.0661 5.918 -3.5351 -2.2526 1.2077 1.0813 5.0174 -0.92636 2.89 4.8338 -1.7988 -5.6216 3.6448 1.1702 1.8456 -1.1549 -2.6634 -1.5736 6.6991 -1.4968 -1.7046 0.072438 2.9081 4.3742 4.1516 -1.4905 -8.4279 -1.7982 0.27128 -4.3095 0.15102 0.13779 5.6921 -2.6703 2.1382 0.84644 
__label__11 5.5258 -3.5851 7.4357 -6.2572 -0.46314 1.7028 0.88119 -0.09935 1.4431 -0.20543 5.1182 0.67305 -3.2449 2.9607 0.46088 7.2045 -1.7831 0.48223 -2.1947 3.4474 0.73896 0.12169 -1.149 4.819 7.8523 5.6607 -1.0089 -0.4677 -5.9407 1.1289 -5.2236 1.2482 -4.1998 -2.2232 5.6952 -1.3252 0.9345 2.4699 0.18831 2.6029 -4.2147 0.47638 1.7397 -9.7428 0.50672 -2.6383 2.0645 -0.12211 5.6122 5.9237 1.3288 -6.4043 -3.3962 0.89533 -7.7023 -1.285 -6.8291 0.92025 -1.4824 2.6323 -0.024347 2.6634 -3.4493 -4.1963 1.9834 0.81213 -0.9472 -2.4874 -0.60842 -2.5003 -2.7885 4.7949 -3.8177 -3.4477 -2.9541 8.7494 -1.9574 -2.3198 0.84956 1.9819 4.4378 -0.73487 -8.4483 -5.3253 1.646 -3.0349 3.0508 -1.9111 -0.33584 4.4277 -1.9263 0.6346 1.8813 -1.9235 -3.3213 3.6383 -1.9172 -0.65643 8.0368 -1.8767 
__label__7 -6.9436 10.434 -5.433 -2.4557 -0.39822 6.4831 1.4083 1.5921 4.0128 2.056 -1.8168 2.1728 -2.4506 2.4658 3.8702 -1.1275 2.9502 0.94024 -2.2823 -4.1655 0.6719 8.1237 1.7295 0.12832 -0.36818 5.3247 2.5857 4.7704 5.4501 3.1539 1.5862 -5.0378 -1.3114 4.9178 1.5559 4.9482 0.45215 3.5091 -5.033 -0.19791 4.3515 -3.614 -0.45966 1.3789 -5.5765 0.09182 3.2186 -0.68518 1.4623 -4.814 -1.2848 6.2231 -5.9291 -0.79657 -4.1854 -2.3499 2.8791 4.6369 0.87008 -0.24987 -2.5934 -0.2366 -3.5099 -1.8186 -0.7251 -2.4012 -2.0166 -3.2124 7.8207 2.4622 -6.4066 0.25142 -3.1654 -1.9326 0.74955 -7.1175 -1.3246 4.6354 -1.494 -6.4866 -5.0967 2.506 1.085 3.7514 0.47654 0.40119 -1.8366 0.72015 -3.0948 -2.3156 7.0646 3.8768 1.7977 -1.0843 2.4137 -0.72539 0.68504 2.923 -5.8755 -0.78976 
__label__9 -1.4137 0.9548 4.5052 -4.6005 -0.45662 -0.52417 2.796 0.62243 0.8727 2.2418 1.2437 2.5719 -4.6628 -1.7757 1.6835 0.30107 3.8867 -3.0831 0.22906 -0.80857 1.8705 -1.7298 -0.24579 1.175 -3.5307 4.3307 5.1448 2.2408 -2.0835 4.0719 3.5138 -1.8712 -4.5544 0.42568 6.2393 2.4615 -4.9175 3.8653 -1.9587 -1.1814 -3.3829 -5.6322 -1.6888 -0.75988 1.4916 -2.7679 0.59548 1.4906 2.2505 2.1144 -0.66385 -0.1144 -1.1053 -3.4429 -2.6094 -1.6772 -1.4903 -0.5865 1.5239 2.8024 -3.2138 1.1271 -2.3758 -3.0702 -4.9798 5.5558 3.6601 -5.5295 -0.33343 0.088449 1.257 0.96995 0.16296 -2.3392 -3.9043 -0.049209 -4.7637 -0.55575 2.3845 -4.1275 -2.2756 1.4284 2.8002 -1.5105 1.5832 -2.0074 1.4139 3.1838 -1.5847 -6.5059 -1.8635 0.63205 2.407 0.71263 -2.0033 6.7059 2.6816 1.6898 -1.0707 3.5725 
