14 10
__label__10 -0.2193 1.2229 0.83757 0.36522 0.38806 0.16927 0.23213 0.095471 0.41507 0.099242 
__label__14 -0.23024 -0.055877 -0.32711 0.273 0.2184 0.02132 -0.18776 0.13834 -0.20345 0.070187 
__label__4 0.19811 -0.44151 0.14146 -0.78815 -0.40861 -0.32104 -0.092609 0.1723 0.034011 -0.12853 
__label__2 0.1938 -0.30297 -0.30055 0.12856 0.0047771 0.46407 -0.027804 -0.80572 -0.2508 0.20116 
__label__3 0.151 -0.75416 -0.11884 -0.45446 -0.14894 -0.18043 -0.18345 0.17298 -0.18786 -0.18397 
__label__5 0.21857 -0.54605 -0.10136 -0.43048 -0.25259 -0.029175 -0.10557 0.095482 -0.34608 -0.083628 
__label__1 -0.1326 -0.47659 -0.23118 0.17322 0.042287 -0.039379 -0.079102 0.047522 -0.19675 -0.19617 
__label__6 -0.096859 -0.58297 -0.53253 0.043193 0.10013 -0.092594 -0.20296 0.13172 -0.48742 -0.22515 
__label__13 0.07639 0.065378 -0.11342 0.43949 0.22844 -0.10642 -0.22699 0.36559 -0.018245 -0.21831 
__label__12 -0.19659 -0.62517 -0.57166 0.46406 0.32056 -0.4409 -0.56553 0.13556 -0.16814 -0.20401 
__label__8 0.19733 1.3999 0.25482 0.022514 -0.10517 0.37667 0.57932 -0.39684 -0.11791 0.42889 
__label__11 -0.30347 1.0379 0.76903 0.29455 0.51503 0.16068 0.075184 0.22216 0.37729 0.0093677 
__label__7 -0.092191 -0.23847 -0.27492 0.30933 -0.023731 0.20918 0.052173 -0.24288 -0.31983 -0.060168 
__label__9 0.2379 0.28992 0.56459 -0.84222 -0.87988 -0.19196 0.73266 -0.13187 1.4692 0.49059 
